{"learner":{"attributes":{},"feature_names":["PassengerId","Pclass","Sex_female","Sex_male","Sex_other","Age","SibSp","Parch","Fare","Embarked_C","Embarked_Q","Embarked_S","Embarked_other"],"feature_types":[],"gradient_booster":{"model":{"gbtree_model_param":{"num_parallel_tree":"1","num_trees":"1"},"iteration_indptr":[0,1],"tree_info":[0],"trees":[{"base_weights":[-1.3465501E-8,-2.3968866E-1,3.6352777E-1,-2.609143E-1,2.5458333E-1,4.8953125E-1,2.1567251E-1,-2.1212133E-2,-2.7531314E-1,-1.0583334E-2,3.5142857E-1,5.0284946E-1,5.1111102E-2,4.5396823E-1,7.459458E-2,2.3066668E-2,-1.8142859E-2,-1.3782053E-1,-2.9888096E-1,5.1111102E-2,2.3066668E-2,4.2903224E-1,2.7932292E-2,-1.0583334E-2,1.4416667E-2,4.978333E-1,-1.0583334E-2,1.5744443E-1,-2.4541667E-1,7.076922E-2,-3.216667E-1,-2.0216668E-1,-3.123967E-1,-1.0583334E-2,1.4416667E-2,2.2872223E-2,-1.0583334E-2,2.7031248E-2,2.6133332E-1,-2.4541667E-1,2.9072464E-1,-1.8142859E-2,1.4416667E-2,1.7925924E-1,-1.3866667E-1,5.1111102E-2,-1.9402778E-2,-1.9402778E-2,6.8148136E-2,-2.1712965E-1,-3.4864342E-1,2.1625001E-2,-1.0583334E-2,-1.8142859E-2,1.4416667E-2,3.9783332E-1,-1.5875E-2,3.1388888E-1,-6.750001E-2,-1.5875E-2,1.4416667E-2,-1.0583334E-2,1.4416667E-2,-1.4111112E-2,2.0857142E-1,-2.965432E-1,1.8999988E-2,-2.0696297E-2,-2.7039683E-1,4.8392156E-1,-6.750001E-2,-1.0583334E-2,2.3066668E-2,-1.4111112E-2,1.4416667E-2,2.3066668E-2,-1.4111112E-2,-9.7555565E-3,-1.9538462E-2,1.5694445E-2,-1.6933335E-2,9.125E-3,-1.5495727E-2,2.6615385E-2,1.3066666E-2,1.4416667E-2,-1.4111112E-2],"categories":[],"categories_nodes":[],"categories_segments":[],"categories_sizes":[],"default_left":[0,0,0,0,0,0,0,0,0,0,0,0,0,0,0,0,0,0,0,0,0,0,0,0,0,0,0,0,0,0,0,0,0,0,0,0,0,0,0,0,0,0,0,0,0,0,0,0,0,0,0,0,0,0,0,0,0,0,0,0,0,0,0,0,0,0,0,0,0,0,0,0,0,0,0,0,0,0,0,0,0,0,0,0,0,0,0],"id":0,"left_children":[1,3,5,7,9,11,13,15,17,-1,19,21,23,25,27,-1,-1,29,31,33,-1,35,-1,-1,-1,37,-1,39,41,43,45,47,49,-1,-1,-1,-1,-1,51,53,55,-1,-1,57,59,61,-1,-1,63,65,67,-1,-1,-1,-1,69,-1,71,73,-1,-1,-1,-1,-1,75,77,79,-1,81,83,85,-1,-1,-1,-1,-1,-1,-1,-1,-1,-1,-1,-1,-1,-1,-1,-1],"loss_changes":[2.6314312E1,1.9758291E0,2.1300535E0,5.981617E-1,4.3561846E-1,3.479929E-1,1.8823776E0,1.9808499E0,4.9347496E-1,0E0,2.0746493E-1,1.5685081E-2,2.4804074E-1,7.185354E-1,1.0196162E0,0E0,0E0,1.0198231E0,1.19846344E-1,2.4804074E-1,0E0,6.61139E-1,0E0,0E0,0E0,6.1120987E-2,0E0,1.6821507E0,6.060946E-1,3.2023945E-1,3.6631024E-1,1.0314157E0,3.4212685E-1,0E0,0E0,0E0,0E0,0E0,4.96355E-1,6.060946E-1,1.6246734E0,0E0,0E0,3.201775E-1,4.73355E-1,2.4804074E-1,0E0,0E0,5.016649E-1,6.807027E-1,3.273754E-1,0E0,0E0,0E0,0E0,8.338592E-1,0E0,5.625903E-1,3.8699538E-1,0E0,0E0,0E0,0E0,0E0,9.985761E-1,1.8181038E-1,1.161023E0,0E0,8.0825186E-1,4.3983698E-2,3.8699538E-1,0E0,0E0,0E0,0E0,0E0,0E0,0E0,0E0,0E0,0E0,0E0,0E0,0E0,0E0,0E0,0E0],"parents":[2147483647,0,0,1,1,2,2,3,3,4,4,5,5,6,6,7,7,8,8,10,10,11,11,12,12,13,13,14,14,17,17,18,18,19,19,21,21,25,25,27,27,28,28,29,29,30,30,31,31,32,32,38,38,39,39,40,40,43,43,44,44,45,45,48,48,49,49,50,50,55,55,57,57,58,58,64,64,65,65,66,66,68,68,69,69,70,70],"right_children":[2,4,6,8,10,12,14,16,18,-1,20,22,24,26,28,-1,-1,30,32,34,-1,36,-1,-1,-1,38,-1,40,42,44,46,48,50,-1,-1,-1,-1,-1,52,54,56,-1,-1,58,60,62,-1,-1,64,66,68,-1,-1,-1,-1,70,-1,72,74,-1,-1,-1,-1,-1,76,78,80,-1,82,84,86,-1,-1,-1,-1,-1,-1,-1,-1,-1,-1,-1,-1,-1,-1,-1,-1],"split_conditions":[1E0,8.18583E1,3E0,1.3E1,6.4E1,4.9E2,8.05E0,2E0,2E0,-1.0583334E-2,1E0,2.9125E1,2.6E1,3.7E2,3E0,2.3066668E-2,-1.8142859E-2,3.85E1,8.3E1,3.75E2,2.3066668E-2,2.79E1,2.7932292E-2,-1.0583334E-2,1.4416667E-2,7.8958E0,-1.0583334E-2,1.05E1,3.13875E1,1E0,2.6E1,8.85E0,2.7E1,-1.0583334E-2,1.4416667E-2,2.2872223E-2,-1.0583334E-2,2.7031248E-2,2.8E1,4.06E2,3.9E1,-1.8142859E-2,1.4416667E-2,3E2,1.02E2,1.04E2,-1.9402778E-2,-1.9402778E-2,2.7E1,2.4E1,2.89E2,2.1625001E-2,-1.0583334E-2,-1.8142859E-2,1.4416667E-2,2.325E1,-1.5875E-2,2.6E1,3.53E2,-1.5875E-2,1.4416667E-2,-1.0583334E-2,1.4416667E-2,-1.4111112E-2,3.25E1,8.1125E0,2.75E2,-2.0696297E-2,3.03E2,3.96E2,3E1,-1.0583334E-2,2.3066668E-2,-1.4111112E-2,1.4416667E-2,2.3066668E-2,-1.4111112E-2,-9.7555565E-3,-1.9538462E-2,1.5694445E-2,-1.6933335E-2,9.125E-3,-1.5495727E-2,2.6615385E-2,1.3066666E-2,1.4416667E-2,-1.4111112E-2],"split_indices":[2,8,1,5,0,0,8,6,1,0,6,8,5,0,6,0,0,8,0,0,0,8,0,0,0,8,0,8,8,9,5,8,5,0,0,0,0,0,5,0,5,0,0,0,0,0,0,0,5,5,0,0,0,0,0,8,0,8,0,0,0,0,0,0,5,8,0,0,0,0,0,0,0,0,0,0,0,0,0,0,0,0,0,0,0,0,0],"split_type":[0,0,0,0,0,0,0,0,0,0,0,0,0,0,0,0,0,0,0,0,0,0,0,0,0,0,0,0,0,0,0,0,0,0,0,0,0,0,0,0,0,0,0,0,0,0,0,0,0,0,0,0,0,0,0,0,0,0,0,0,0,0,0,0,0,0,0,0,0,0,0,0,0,0,0,0,0,0,0,0,0,0,0,0,0,0,0],"sum_hessian":[3E2,1.81E2,1.19E2,1.74E2,7E0,6.3E1,5.6E1,1E1,1.64E2,1E0,6E0,6.1E1,2E0,2E1,3.6E1,4E0,6E0,2.5E1,1.39E2,2E0,4E0,3E1,3.1E1,1E0,1E0,1.9E1,1E0,2.9E1,7E0,1.2E1,1.3E1,1.9E1,1.2E2,1E0,1E0,2.9E1,1E0,1.5E1,4E0,7E0,2.2E1,6E0,1E0,8E0,4E0,2E0,1.1E1,1.1E1,8E0,3.5E1,8.5E1,3E0,1E0,6E0,1E0,1.9E1,3E0,5E0,3E0,3E0,1E0,1E0,1E0,2E0,6E0,2.6E1,9E0,4.4E1,4.1E1,1.6E1,3E0,1E0,4E0,2E0,1E0,4E0,2E0,1.4E1,1.2E1,5E0,4E0,3E0,3.8E1,1.2E1,4E0,1E0,2E0],"tree_param":{"num_deleted":"0","num_feature":"13","num_nodes":"87","size_leaf_vector":"1"}}]},"name":"gbtree"},"learner_model_param":{"base_score":"4.2333335E-1","boost_from_average":"1","num_class":"0","num_feature":"13","num_target":"1"},"objective":{"name":"reg:squarederror","reg_loss_param":{"scale_pos_weight":"1"}}},"version":[2,1,1]}