{"learner":{"attributes":{},"feature_names":["PassengerId","Pclass","Sex_female","Sex_male","Sex_other","Age","SibSp","Parch","Fare","Embarked_C","Embarked_Q","Embarked_S","Embarked_other"],"feature_types":[],"gradient_booster":{"model":{"gbtree_model_param":{"num_parallel_tree":"1","num_trees":"1"},"iteration_indptr":[0,1],"tree_info":[0],"trees":[{"base_weights":[1.5841766E-9,-2.0007055E-1,3.3463126E-1,1.4425926E-1,-2.3494186E-1,5.1519233E-1,1.777957E-1,2.7703702E-2,-2.39E-1,-1.3623932E-1,-2.6191542E-1,5.3267974E-1,-9.416667E-3,4.5209876E-1,-3.2870367E-2,-1.6142858E-2,-3.25E-2,-6.4111106E-2,-1.695E-2,9.866667E-2,-2.7376923E-1,-9.416667E-3,5.5086666E-1,-9.416667E-3,4.8397437E-1,2.3805556E-1,-1.616E-1,1.5583334E-2,-1.2555556E-2,-1.5263888E-1,2.4857143E-1,-1.2555556E-2,2.0777779E-2,-2.3081197E-1,-1.6591195E-2,2.9866666E-1,5.663043E-1,2.8569445E-2,3.817778E-1,-1.4722222E-1,2.6714286E-2,1.05714284E-1,-2.5157896E-1,-7.7962965E-2,-1.6142858E-2,2.3375E-2,-3.25E-2,-2.842512E-1,1.61E-1,2.3375E-2,-9.416667E-3,2.9279072E-2,2.175E-1,2.4923077E-2,-1.2555556E-2,-1.5066667E-2,1.5583334E-2,-1.2555556E-2,2.9866666E-1,-1.7384617E-2,-3.7142854E-2,7.380954E-3,-1.5066667E-2,-1.2555556E-2,1.5583334E-2,-3.25E-2,-2.9520202E-1,-1.2555556E-2,2.9541665E-1,-9.416667E-3,2.0777779E-2,2.3375E-2,-9.416667E-3,2.175E-1,-1.4125E-2,-5.62963E-3,9.305555E-3,-1.2555556E-2,1.5583334E-2,-1.1287357E-2,-1.702193E-2,1.957143E-2,-9.416667E-3,-9.416667E-3,2.0777779E-2],"categories":[],"categories_nodes":[],"categories_segments":[],"categories_sizes":[],"default_left":[0,0,0,0,0,0,0,0,0,0,0,0,0,0,0,0,0,0,0,0,0,0,0,0,0,0,0,0,0,0,0,0,0,0,0,0,0,0,0,0,0,0,0,0,0,0,0,0,0,0,0,0,0,0,0,0,0,0,0,0,0,0,0,0,0,0,0,0,0,0,0,0,0,0,0,0,0,0,0,0,0,0,0,0,0],"id":0,"left_children":[1,3,5,7,9,11,13,-1,15,17,19,21,-1,23,25,-1,27,29,-1,31,33,-1,35,-1,37,39,41,-1,-1,43,45,-1,-1,47,-1,49,51,-1,53,55,-1,57,59,61,-1,-1,63,65,67,-1,-1,-1,69,-1,-1,-1,-1,-1,71,-1,73,75,-1,-1,-1,77,79,-1,81,-1,-1,-1,-1,83,-1,-1,-1,-1,-1,-1,-1,-1,-1,-1,-1],"loss_changes":[2.0218857E1,2.303259E0,3.1083794E0,2.9595995E0,4.2224216E-1,7.4007034E-1,3.5976143E0,0E0,1.626721E-1,5.486321E-1,5.997639E-1,7.725096E-1,0E0,6.423311E-1,1.2940128E0,0E0,3.792176E-1,8.683743E-1,0E0,6.585541E-1,2.476139E-1,0E0,2.5532722E-2,0E0,1.4126301E-2,1.4482296E0,6.2791204E-1,0E0,0E0,2.7989805E-1,4.4593576E-1,0E0,0E0,1.6789389E0,0E0,4.9915504E-1,1.8193722E-1,0E0,1.2328868E0,5.182348E-1,0E0,5.569506E-1,3.7867892E-1,3.4536356E-1,0E0,0E0,3.792176E-1,1.8063068E-1,6.281284E-1,0E0,0E0,0E0,3.9977312E-1,0E0,0E0,0E0,0E0,0E0,4.9915504E-1,0E0,4.9879283E-1,3.211552E-1,0E0,0E0,0E0,3.792176E-1,1.3051224E-1,0E0,4.4528508E-1,0E0,0E0,0E0,0E0,3.9977312E-1,0E0,0E0,0E0,0E0,0E0,0E0,0E0,0E0,0E0,0E0,0E0],"parents":[2147483647,0,0,1,1,2,2,3,3,4,4,5,5,6,6,8,8,9,9,10,10,11,11,13,13,14,14,16,16,17,17,19,19,20,20,22,22,24,24,25,25,26,26,29,29,30,30,33,33,35,35,36,36,38,38,39,39,41,41,42,42,43,43,46,46,47,47,48,48,52,52,58,58,60,60,61,61,65,65,66,66,68,68,73,73],"right_children":[2,4,6,8,10,12,14,-1,16,18,20,22,-1,24,26,-1,28,30,-1,32,34,-1,36,-1,38,40,42,-1,-1,44,46,-1,-1,48,-1,50,52,-1,54,56,-1,58,60,62,-1,-1,64,66,68,-1,-1,-1,70,-1,-1,-1,-1,-1,72,-1,74,76,-1,-1,-1,78,80,-1,82,-1,-1,-1,-1,84,-1,-1,-1,-1,-1,-1,-1,-1,-1,-1,-1],"split_conditions":[1E0,1.3E1,3E0,3E0,2E0,4.79E2,8.05E0,2.7703702E-2,1.84E2,5.4E1,2.5E1,3E0,-9.416667E-3,1.45E1,1E0,-1.6142858E-2,2.65E2,3.79E2,-1.695E-2,7E0,3.04E2,-9.416667E-3,4.3E1,-9.416667E-3,2.8E1,1.55E1,1E0,1.5583334E-2,-1.2555556E-2,4E1,4.52E2,-1.2555556E-2,2.0777779E-2,2.55E2,-1.6591195E-2,1.7E1,4.55E1,2.8569445E-2,1E0,2.43E2,2.6714286E-2,1.05E1,3E1,9.10792E1,-1.6142858E-2,2.3375E-2,4.9E1,1.7E1,7.25E0,2.3375E-2,-9.416667E-3,2.9279072E-2,1.8E2,2.4923077E-2,-1.2555556E-2,-1.5066667E-2,1.5583334E-2,-1.2555556E-2,3.1E1,-1.7384617E-2,3.4E1,5.54417E1,-1.5066667E-2,-1.2555556E-2,1.5583334E-2,1.4E2,1.29E2,-1.2555556E-2,1E0,-9.416667E-3,2.0777779E-2,2.3375E-2,-9.416667E-3,2E1,-1.4125E-2,-5.62963E-3,9.305555E-3,-1.2555556E-2,1.5583334E-2,-1.1287357E-2,-1.702193E-2,1.957143E-2,-9.416667E-3,-9.416667E-3,2.0777779E-2],"split_indices":[2,5,1,6,1,0,8,0,0,5,0,5,0,5,11,0,0,0,0,0,0,0,0,0,5,8,6,0,0,5,0,0,0,0,0,0,5,0,11,0,0,8,5,8,0,0,5,5,8,0,0,0,0,0,0,0,0,0,5,0,5,8,0,0,0,0,0,0,9,0,0,0,0,0,0,0,0,0,0,0,0,0,0,0,0],"split_type":[0,0,0,0,0,0,0,0,0,0,0,0,0,0,0,0,0,0,0,0,0,0,0,0,0,0,0,0,0,0,0,0,0,0,0,0,0,0,0,0,0,0,0,0,0,0,0,0,0,0,0,0,0,0,0,0,0,0,0,0,0,0,0,0,0,0,0,0,0,0,0,0,0,0,0,0,0,0,0,0,0,0,0,0,0],"sum_hessian":[3E2,1.88E2,1.12E2,1.7E1,1.71E2,5.1E1,6.1E1,8E0,9E0,3.8E1,1.33E2,5E1,1E0,2.6E1,3.5E1,6E0,3E0,2.9E1,9E0,4E0,1.29E2,1E0,4.9E1,1E0,2.5E1,1.1E1,2.4E1,1E0,2E0,2.3E1,6E0,2E0,2E0,7.7E1,5.2E1,4E0,4.5E1,1.1E1,1.4E1,5E0,6E0,6E0,1.8E1,1.7E1,6E0,3E0,3E0,6.8E1,9E0,3E0,1E0,4.2E1,3E0,1.2E1,2E0,4E0,1E0,2E0,4E0,1.2E1,6E0,1.3E1,4E0,2E0,1E0,3E0,6.5E1,2E0,7E0,1E0,2E0,3E0,1E0,3E0,3E0,8E0,5E0,2E0,1E0,2.8E1,3.7E1,6E0,1E0,1E0,2E0],"tree_param":{"num_deleted":"0","num_feature":"13","num_nodes":"85","size_leaf_vector":"1"}}]},"name":"gbtree"},"learner_model_param":{"base_score":"3.7666667E-1","boost_from_average":"1","num_class":"0","num_feature":"13","num_target":"1"},"objective":{"name":"reg:squarederror","reg_loss_param":{"scale_pos_weight":"1"}}},"version":[2,1,1]}