{"learner":{"attributes":{},"feature_names":["PassengerId","Pclass","Age","SibSp","Parch","Fare","Embarked_C","Embarked_S","Embarked_Q","Embarked_other","Sex_male","Sex_female","Sex_other"],"feature_types":[],"gradient_booster":{"model":{"gbtree_model_param":{"num_parallel_tree":"1","num_trees":"1"},"iteration_indptr":[0,1],"tree_info":[0],"trees":[{"base_weights":[-3.3565755E-9,3.4632945E-1,-2.2892964E-1,4.0124473E-1,-8.635029E-2,1.9939116E-1,-2.5038502E-1,2.1267122E-1,4.7132418E-1,-2.0062785E-1,1.997717E-2,2.497146E-2,-1.5025685E-2,-2.5886258E-1,7.945205E-2,2.7660696E-2,-4.5091327E-2,4.907534E-1,1.6609588E-1,-2.7334994E-1,1.4982876E-2,-1.1643836E-1,-2.755102E-1,-1.3356164E-2,1.997717E-2,1.4940068E-1,-1.8244085E-1,5.239164E-1,2.3938355E-1,-1.3356164E-2,2.2474315E-2,-1.7529966E-2,-5.05137E-2,-1.6695205E-2,-1.4921725E-2,-1.8956113E-1,-3.2195422E-1,-1.3356164E-2,3.3276254E-1,-2.6061642E-1,1.4982876E-2,2.7440068E-1,2.755898E-2,3.9940068E-1,-1.3356164E-2,1.4982876E-2,-1.3356164E-2,1.3938355E-1,-1.6027397E-2,-3.306507E-1,-1.035225E-1,-3.7374866E-1,-2.518318E-1,2.3972603E-2,-1.0017123E-2,-1.6027397E-2,-1.6723745E-1,2.497146E-2,-1.3356164E-2,6.621004E-2,2.497146E-2,-5.772994E-2,2.2474315E-2,6.621004E-2,-1.8921232E-2,2.1603881E-1,-2.5898972E-1,-2.4505326E-1,-1.9578923E-2,1.997717E-2,-2.9335114E-1,1.4982876E-2,-1.6027397E-2,1.4982876E-2,-1.0017123E-2,-8.361872E-3,1.4982876E-2,-1.0017123E-2,1.4982876E-2,-6.0273972E-3,1.9970035E-2,1.4982876E-2,-1.4815367E-2,-1.7529966E-2,1.4982876E-2,-1.7533025E-2,-7.888943E-3],"categories":[],"categories_nodes":[],"categories_segments":[],"categories_sizes":[],"default_left":[0,0,0,0,0,0,0,0,0,0,0,0,0,0,0,0,0,0,0,0,0,0,0,0,0,0,0,0,0,0,0,0,0,0,0,0,0,0,0,0,0,0,0,0,0,0,0,0,0,0,0,0,0,0,0,0,0,0,0,0,0,0,0,0,0,0,0,0,0,0,0,0,0,0,0,0,0,0,0,0,0,0,0,0,0,0,0],"id":0,"left_children":[1,3,5,7,9,11,13,15,17,19,-1,-1,-1,21,23,-1,25,27,29,31,-1,33,35,-1,-1,37,39,41,43,-1,-1,-1,45,-1,47,49,51,-1,53,55,-1,57,-1,59,-1,-1,-1,61,-1,63,65,67,69,-1,-1,-1,71,-1,-1,73,-1,75,-1,77,-1,79,81,83,-1,-1,85,-1,-1,-1,-1,-1,-1,-1,-1,-1,-1,-1,-1,-1,-1,-1,-1],"loss_changes":[2.3309814E1,2.8146515E0,1.6765156E0,1.2741356E0,8.575339E-1,1.4999996E0,4.9312878E-1,2.6583197E0,3.6326408E-1,5.1849294E-1,0E0,0E0,0E0,3.591385E-1,6.6140604E-1,0E0,5.080977E-1,4.5811653E-1,8.5668916E-1,1.7164344E-1,0E0,4.1446897E-1,5.257673E-1,0E0,0E0,6.9988555E-1,4.9266723E-1,2.6371384E-1,9.171869E-1,0E0,0E0,0E0,3.834473E-1,0E0,7.0491546E-1,6.2128437E-1,2.4728203E-1,0E0,5.6526E-1,2.355814E-3,0E0,1.108276E0,0E0,2.335614E-1,0E0,0E0,0E0,6.372031E-1,0E0,4.04248E-1,1.7947977E0,2.336216E-2,1.2801278E0,0E0,0E0,0E0,5.2553403E-1,0E0,0E0,2.4671216E-1,0E0,3.240702E-1,0E0,2.4671216E-1,0E0,7.88753E-1,5.8912766E-1,6.224883E-1,0E0,0E0,2.6322484E-1,0E0,0E0,0E0,0E0,0E0,0E0,0E0,0E0,0E0,0E0,0E0,0E0,0E0,0E0,0E0,0E0],"parents":[2147483647,0,0,1,1,2,2,3,3,4,4,5,5,6,6,7,7,8,8,9,9,13,13,14,14,16,16,17,17,18,18,19,19,21,21,22,22,25,25,26,26,27,27,28,28,32,32,34,34,35,35,36,36,38,38,39,39,41,41,43,43,47,47,49,49,50,50,51,51,52,52,56,56,59,59,61,61,63,63,65,65,66,66,67,67,70,70],"right_children":[2,4,6,8,10,12,14,16,18,20,-1,-1,-1,22,24,-1,26,28,30,32,-1,34,36,-1,-1,38,40,42,44,-1,-1,-1,46,-1,48,50,52,-1,54,56,-1,58,-1,60,-1,-1,-1,62,-1,64,66,68,70,-1,-1,-1,72,-1,-1,74,-1,76,-1,78,-1,80,82,84,-1,-1,86,-1,-1,-1,-1,-1,-1,-1,-1,-1,-1,-1,-1,-1,-1,-1,-1],"split_conditions":[1E0,2E0,4E0,1.05E1,1E0,3E0,9.10792E1,1E0,1.5155E2,2.8E1,1.997717E-2,2.497146E-2,-1.5025685E-2,6.7E1,3.79E2,2.7660696E-2,2.18E2,4.2E1,2.6E1,2.31E2,1.4982876E-2,2.3E1,2.7E1,-1.3356164E-2,1.997717E-2,1.5E1,4.25E2,5.2E1,3E0,-1.3356164E-2,2.2474315E-2,-1.7529966E-2,2.36E2,-1.6695205E-2,3.5E1,1.93E2,2.87E2,-1.3356164E-2,2.8E1,2.98E2,1.4982876E-2,4.2E1,2.755898E-2,1.81E2,-1.3356164E-2,1.4982876E-2,-1.3356164E-2,1E0,-1.6027397E-2,7.225E0,2.85E2,7.8E0,2.9E2,2.3972603E-2,-1.0017123E-2,-1.6027397E-2,3.18E2,2.497146E-2,-1.3356164E-2,5.5E1,2.497146E-2,5.9E1,2.2474315E-2,2.05E1,-1.8921232E-2,7.5208E0,2E0,7.775E0,-1.9578923E-2,1.997717E-2,3.9E1,1.4982876E-2,-1.6027397E-2,1.4982876E-2,-1.0017123E-2,-8.361872E-3,1.4982876E-2,-1.0017123E-2,1.4982876E-2,-6.0273972E-3,1.9970035E-2,1.4982876E-2,-1.4815367E-2,-1.7529966E-2,1.4982876E-2,-1.7533025E-2,-7.888943E-3],"split_indices":[10,3,2,5,6,3,5,7,5,2,0,0,0,0,0,0,0,2,2,0,0,2,2,0,0,2,0,0,1,0,0,0,0,0,2,0,0,0,2,0,0,0,0,0,0,0,0,7,0,5,0,5,0,0,0,0,0,0,0,0,0,0,0,2,0,5,1,5,0,0,2,0,0,0,0,0,0,0,0,0,0,0,0,0,0,0,0],"split_type":[0,0,0,0,0,0,0,0,0,0,0,0,0,0,0,0,0,0,0,0,0,0,0,0,0,0,0,0,0,0,0,0,0,0,0,0,0,0,0,0,0,0,0,0,0,0,0,0,0,0,0,0,0,0,0,0,0,0,0,0,0,0,0,0,0,0,0,0,0,0,0,0,0,0,0,0,0,0,0,0,0,0,0,0,0,0,0],"sum_hessian":[2.92E2,1.16E2,1.76E2,1.03E2,1.3E1,8E0,1.68E2,2.9E1,7.4E1,1.1E1,2E0,5E0,3E0,1.64E2,4E0,1.2E1,1.7E1,6.9E1,5E0,1E1,1E0,1.8E1,1.46E2,2E0,2E0,7E0,1E1,6E1,9E0,2E0,3E0,7E0,3E0,5E0,1.3E1,5.3E1,9.3E1,2E0,5E0,9E0,1E0,7E0,5.3E1,7E0,2E0,1E0,2E0,9E0,4E0,1.9E1,3.4E1,5.1E1,4.2E1,4E0,1E0,4E0,5E0,5E0,2E0,2E0,5E0,6E0,3E0,2E0,1.7E1,1.1E1,2.3E1,8E0,4.3E1,2E0,4E1,1E0,4E0,1E0,1E0,5E0,1E0,1E0,1E0,4E0,7E0,1E0,2.2E1,7E0,1E0,2.7E1,1.3E1],"tree_param":{"num_deleted":"0","num_feature":"13","num_nodes":"87","size_leaf_vector":"1"}}]},"name":"gbtree"},"learner_model_param":{"base_score":"4.0068492E-1","boost_from_average":"1","num_class":"0","num_feature":"13","num_target":"1"},"objective":{"name":"reg:squarederror","reg_loss_param":{"scale_pos_weight":"1"}}},"version":[2,1,1]}